=== Run information ===

Scheme:       weka.classifiers.trees.J48 -C 0.25 -M 2
Relation:     occupancy
Instances:    2025
Attributes:   5
              temp
              light
              sound
              CO2
              class
Test mode:    10-fold cross-validation

=== Classifier model (full training set) ===

J48 pruned tree
------------------

light <= 20
|   sound <= 0.15
|   |   sound <= 0.08: no (1576.0/3.0)
|   |   sound > 0.08
|   |   |   temp <= 25.5: no (50.0)
|   |   |   temp > 25.5
|   |   |   |   CO2 <= 480: yes (4.0)
|   |   |   |   CO2 > 480: no (12.0)
|   sound > 0.15
|   |   light <= 11
|   |   |   light <= 1
|   |   |   |   temp <= 26.25: no (6.0)
|   |   |   |   temp > 26.25: yes (2.0)
|   |   |   light > 1: yes (22.0)
|   |   light > 11: no (5.0)
light > 20: yes (348.0)

Number of Leaves  : 	9

Size of the tree : 	17


Time taken to build model: 0.01 seconds

=== Predictions on test data ===

inst#,actual,predicted,error,prediction
1,1:no,1:no,,0.996
2,1:no,1:no,,0.996
3,1:no,1:no,,0.996
4,1:no,1:no,,0.996
5,1:no,1:no,,0.996
6,1:no,1:no,,0.996
7,1:no,1:no,,0.996
8,1:no,1:no,,0.996
9,1:no,1:no,,0.996
10,1:no,1:no,,0.996
11,1:no,1:no,,0.996
12,1:no,1:no,,0.996
13,1:no,1:no,,0.996
14,1:no,1:no,,0.996
15,1:no,1:no,,0.996
16,1:no,1:no,,0.996
17,1:no,1:no,,0.996
18,1:no,1:no,,0.996
19,1:no,1:no,,0.996
20,1:no,1:no,,0.996
21,1:no,1:no,,0.996
22,1:no,1:no,,0.996
23,1:no,1:no,,0.996
24,1:no,1:no,,0.996
25,1:no,1:no,,0.996
26,1:no,1:no,,0.996
27,1:no,1:no,,0.996
28,1:no,1:no,,0.996
29,1:no,1:no,,0.996
30,1:no,1:no,,0.996
31,1:no,1:no,,0.996
32,1:no,1:no,,0.996
33,1:no,1:no,,0.996
34,1:no,1:no,,0.996
35,1:no,1:no,,0.996
36,1:no,1:no,,0.996
37,1:no,1:no,,0.996
38,1:no,1:no,,0.996
39,1:no,1:no,,0.996
40,1:no,1:no,,0.996
41,1:no,1:no,,0.996
42,1:no,1:no,,0.996
43,1:no,1:no,,0.996
44,1:no,1:no,,0.996
45,1:no,1:no,,0.996
46,1:no,1:no,,0.996
47,1:no,1:no,,0.996
48,1:no,1:no,,0.996
49,1:no,1:no,,0.996
50,1:no,1:no,,0.996
51,1:no,1:no,,0.996
52,1:no,1:no,,0.996
53,1:no,1:no,,0.996
54,1:no,1:no,,0.996
55,1:no,1:no,,0.996
56,1:no,1:no,,0.996
57,1:no,1:no,,0.996
58,1:no,1:no,,0.996
59,1:no,1:no,,0.996
60,1:no,1:no,,0.996
61,1:no,1:no,,0.996
62,1:no,1:no,,0.996
63,1:no,1:no,,0.996
64,1:no,1:no,,0.996
65,1:no,1:no,,0.996
66,1:no,1:no,,0.996
67,1:no,1:no,,0.996
68,1:no,1:no,,0.996
69,1:no,1:no,,0.996
70,1:no,1:no,,0.996
71,1:no,1:no,,0.996
72,1:no,1:no,,0.996
73,1:no,1:no,,0.996
74,1:no,1:no,,0.996
75,1:no,1:no,,0.996
76,1:no,1:no,,0.996
77,1:no,1:no,,0.996
78,1:no,1:no,,0.996
79,1:no,1:no,,0.996
80,1:no,1:no,,0.996
81,1:no,1:no,,0.996
82,1:no,1:no,,0.996
83,1:no,1:no,,0.996
84,1:no,1:no,,0.996
85,1:no,1:no,,0.996
86,1:no,1:no,,0.996
87,1:no,1:no,,0.996
88,1:no,1:no,,0.996
89,1:no,1:no,,0.996
90,1:no,1:no,,0.996
91,1:no,1:no,,0.996
92,1:no,1:no,,0.996
93,1:no,1:no,,0.996
94,1:no,1:no,,0.996
95,1:no,1:no,,0.996
96,1:no,1:no,,0.996
97,1:no,1:no,,0.996
98,1:no,1:no,,0.996
99,1:no,1:no,,0.996
100,1:no,1:no,,0.996
101,1:no,1:no,,0.996
102,1:no,1:no,,0.996
103,1:no,1:no,,0.996
104,1:no,1:no,,0.996
105,1:no,1:no,,0.996
106,1:no,1:no,,0.996
107,1:no,1:no,,0.996
108,1:no,1:no,,0.996
109,1:no,1:no,,0.996
110,1:no,1:no,,0.996
111,1:no,1:no,,0.996
112,1:no,1:no,,0.996
113,1:no,1:no,,0.996
114,1:no,1:no,,0.996
115,1:no,1:no,,0.996
116,1:no,1:no,,0.996
117,1:no,1:no,,0.996
118,1:no,1:no,,0.996
119,1:no,1:no,,0.996
120,1:no,1:no,,0.996
121,1:no,1:no,,0.996
122,1:no,1:no,,0.996
123,1:no,1:no,,0.996
124,1:no,1:no,,0.996
125,1:no,1:no,,0.996
126,1:no,1:no,,0.996
127,1:no,1:no,,0.996
128,1:no,1:no,,0.996
129,1:no,1:no,,0.996
130,1:no,1:no,,0.996
131,1:no,1:no,,0.996
132,1:no,1:no,,0.996
133,1:no,1:no,,0.996
134,1:no,1:no,,0.996
135,1:no,1:no,,0.996
136,1:no,1:no,,0.996
137,1:no,1:no,,0.996
138,1:no,1:no,,0.996
139,1:no,1:no,,0.996
140,1:no,1:no,,0.996
141,1:no,1:no,,0.996
142,1:no,1:no,,0.996
143,1:no,1:no,,0.996
144,1:no,1:no,,0.996
145,1:no,1:no,,0.996
146,1:no,1:no,,0.996
147,1:no,1:no,,0.996
148,1:no,1:no,,0.996
149,1:no,1:no,,0.996
150,1:no,1:no,,0.996
151,1:no,1:no,,0.996
152,1:no,1:no,,0.996
153,1:no,1:no,,0.996
154,1:no,1:no,,0.996
155,1:no,1:no,,0.996
156,1:no,1:no,,0.996
157,1:no,1:no,,0.996
158,1:no,1:no,,0.996
159,1:no,1:no,,0.996
160,1:no,1:no,,0.996
161,1:no,1:no,,0.996
162,1:no,1:no,,0.996
163,1:no,1:no,,0.996
164,1:no,1:no,,0.996
165,1:no,1:no,,0.996
166,2:yes,2:yes,,1
167,2:yes,1:no,+,0.857
168,2:yes,2:yes,,1
169,2:yes,2:yes,,1
170,2:yes,2:yes,,1
171,2:yes,2:yes,,1
172,2:yes,2:yes,,1
173,2:yes,2:yes,,1
174,2:yes,2:yes,,1
175,2:yes,1:no,+,0.996
176,2:yes,2:yes,,1
177,2:yes,2:yes,,1
178,2:yes,2:yes,,1
179,2:yes,2:yes,,1
180,2:yes,2:yes,,1
181,2:yes,2:yes,,1
182,2:yes,2:yes,,1
183,2:yes,2:yes,,1
184,2:yes,2:yes,,1
185,2:yes,2:yes,,1
186,2:yes,2:yes,,1
187,2:yes,2:yes,,1
188,2:yes,2:yes,,1
189,2:yes,2:yes,,1
190,2:yes,2:yes,,1
191,2:yes,2:yes,,1
192,2:yes,2:yes,,1
193,2:yes,2:yes,,1
194,2:yes,2:yes,,1
195,2:yes,2:yes,,1
196,2:yes,2:yes,,1
197,2:yes,2:yes,,1
198,2:yes,2:yes,,1
199,2:yes,2:yes,,1
200,2:yes,2:yes,,1
201,2:yes,2:yes,,1
202,2:yes,2:yes,,1
203,2:yes,2:yes,,1
1,1:no,1:no,,0.999
2,1:no,1:no,,0.999
3,1:no,1:no,,0.999
4,1:no,1:no,,0.999
5,1:no,1:no,,0.999
6,1:no,1:no,,0.999
7,1:no,1:no,,0.999
8,1:no,1:no,,0.999
9,1:no,1:no,,0.999
10,1:no,1:no,,0.999
11,1:no,1:no,,0.999
12,1:no,1:no,,0.999
13,1:no,1:no,,0.999
14,1:no,1:no,,0.999
15,1:no,1:no,,0.999
16,1:no,1:no,,0.999
17,1:no,1:no,,0.999
18,1:no,1:no,,0.999
19,1:no,1:no,,0.999
20,1:no,1:no,,0.999
21,1:no,1:no,,0.999
22,1:no,1:no,,0.999
23,1:no,1:no,,0.999
24,1:no,1:no,,0.999
25,1:no,1:no,,0.999
26,1:no,1:no,,0.999
27,1:no,1:no,,0.999
28,1:no,1:no,,0.999
29,1:no,1:no,,0.999
30,1:no,1:no,,0.999
31,1:no,1:no,,0.999
32,1:no,1:no,,0.999
33,1:no,1:no,,0.999
34,1:no,1:no,,0.999
35,1:no,1:no,,0.999
36,1:no,1:no,,0.999
37,1:no,1:no,,0.999
38,1:no,1:no,,0.999
39,1:no,1:no,,0.999
40,1:no,1:no,,0.999
41,1:no,1:no,,0.999
42,1:no,1:no,,0.999
43,1:no,1:no,,0.999
44,1:no,1:no,,0.999
45,1:no,1:no,,0.999
46,1:no,1:no,,0.999
47,1:no,1:no,,0.999
48,1:no,1:no,,0.999
49,1:no,1:no,,0.999
50,1:no,1:no,,1
51,1:no,1:no,,1
52,1:no,1:no,,0.999
53,1:no,1:no,,1
54,1:no,1:no,,1
55,1:no,1:no,,0.999
56,1:no,1:no,,0.999
57,1:no,1:no,,0.999
58,1:no,1:no,,0.999
59,1:no,1:no,,0.999
60,1:no,1:no,,0.999
61,1:no,1:no,,0.999
62,1:no,1:no,,1
63,1:no,1:no,,0.999
64,1:no,1:no,,0.999
65,1:no,1:no,,0.999
66,1:no,1:no,,0.999
67,1:no,1:no,,0.999
68,1:no,1:no,,0.999
69,1:no,1:no,,0.999
70,1:no,1:no,,0.999
71,1:no,1:no,,0.999
72,1:no,1:no,,0.999
73,1:no,1:no,,0.999
74,1:no,1:no,,0.999
75,1:no,1:no,,0.999
76,1:no,1:no,,0.999
77,1:no,1:no,,0.999
78,1:no,1:no,,0.999
79,1:no,1:no,,0.999
80,1:no,1:no,,0.999
81,1:no,1:no,,0.999
82,1:no,1:no,,0.999
83,1:no,1:no,,0.999
84,1:no,1:no,,0.999
85,1:no,1:no,,0.999
86,1:no,1:no,,0.999
87,1:no,1:no,,0.999
88,1:no,1:no,,0.999
89,1:no,1:no,,0.999
90,1:no,1:no,,0.999
91,1:no,1:no,,0.999
92,1:no,1:no,,0.999
93,1:no,1:no,,0.999
94,1:no,1:no,,0.999
95,1:no,1:no,,0.999
96,1:no,1:no,,0.999
97,1:no,1:no,,0.999
98,1:no,1:no,,0.999
99,1:no,1:no,,0.999
100,1:no,1:no,,1
101,1:no,1:no,,0.999
102,1:no,1:no,,0.999
103,1:no,1:no,,0.999
104,1:no,1:no,,0.999
105,1:no,1:no,,0.999
106,1:no,1:no,,0.999
107,1:no,1:no,,0.999
108,1:no,1:no,,0.999
109,1:no,1:no,,0.999
110,1:no,1:no,,1
111,1:no,1:no,,1
112,1:no,1:no,,0.999
113,1:no,1:no,,0.999
114,1:no,1:no,,0.999
115,1:no,1:no,,0.999
116,1:no,1:no,,0.999
117,1:no,1:no,,0.999
118,1:no,1:no,,0.999
119,1:no,1:no,,0.999
120,1:no,1:no,,0.999
121,1:no,1:no,,0.999
122,1:no,1:no,,0.999
123,1:no,1:no,,0.999
124,1:no,1:no,,0.999
125,1:no,1:no,,1
126,1:no,1:no,,0.999
127,1:no,1:no,,0.999
128,1:no,1:no,,0.999
129,1:no,1:no,,0.999
130,1:no,1:no,,1
131,1:no,1:no,,0.999
132,1:no,1:no,,0.999
133,1:no,1:no,,0.999
134,1:no,1:no,,0.999
135,1:no,1:no,,0.999
136,1:no,1:no,,0.999
137,1:no,1:no,,0.999
138,1:no,1:no,,0.999
139,1:no,1:no,,0.999
140,1:no,1:no,,0.999
141,1:no,1:no,,0.999
142,1:no,1:no,,0.999
143,1:no,1:no,,0.999
144,1:no,1:no,,0.999
145,1:no,1:no,,0.999
146,1:no,1:no,,0.999
147,1:no,1:no,,0.999
148,1:no,1:no,,0.999
149,1:no,1:no,,0.999
150,1:no,1:no,,0.999
151,1:no,1:no,,0.999
152,1:no,1:no,,0.999
153,1:no,1:no,,0.999
154,1:no,1:no,,0.999
155,1:no,1:no,,0.999
156,1:no,1:no,,0.999
157,1:no,1:no,,0.999
158,1:no,1:no,,0.999
159,1:no,1:no,,0.999
160,1:no,1:no,,0.999
161,1:no,1:no,,0.999
162,1:no,1:no,,1
163,1:no,1:no,,0.999
164,1:no,1:no,,1
165,1:no,1:no,,0.999
166,2:yes,2:yes,,1
167,2:yes,2:yes,,1
168,2:yes,2:yes,,1
169,2:yes,2:yes,,1
170,2:yes,2:yes,,1
171,2:yes,2:yes,,1
172,2:yes,2:yes,,1
173,2:yes,2:yes,,1
174,2:yes,2:yes,,1
175,2:yes,2:yes,,1
176,2:yes,2:yes,,1
177,2:yes,2:yes,,1
178,2:yes,2:yes,,1
179,2:yes,2:yes,,1
180,2:yes,2:yes,,1
181,2:yes,2:yes,,1
182,2:yes,1:no,+,0.999
183,2:yes,2:yes,,1
184,2:yes,2:yes,,1
185,2:yes,2:yes,,1
186,2:yes,2:yes,,1
187,2:yes,2:yes,,1
188,2:yes,2:yes,,1
189,2:yes,2:yes,,1
190,2:yes,2:yes,,1
191,2:yes,2:yes,,1
192,2:yes,2:yes,,1
193,2:yes,2:yes,,1
194,2:yes,2:yes,,1
195,2:yes,2:yes,,1
196,2:yes,2:yes,,1
197,2:yes,2:yes,,1
198,2:yes,2:yes,,1
199,2:yes,2:yes,,1
200,2:yes,2:yes,,1
201,2:yes,2:yes,,1
202,2:yes,2:yes,,1
203,2:yes,2:yes,,1
1,1:no,1:no,,0.996
2,1:no,1:no,,0.996
3,1:no,1:no,,0.996
4,1:no,1:no,,0.996
5,1:no,1:no,,0.996
6,1:no,1:no,,0.996
7,1:no,1:no,,0.996
8,1:no,1:no,,0.996
9,1:no,1:no,,0.996
10,1:no,1:no,,0.996
11,1:no,1:no,,0.996
12,1:no,1:no,,0.996
13,1:no,1:no,,0.996
14,1:no,1:no,,0.996
15,1:no,1:no,,0.996
16,1:no,1:no,,0.996
17,1:no,1:no,,0.996
18,1:no,1:no,,0.996
19,1:no,1:no,,0.996
20,1:no,1:no,,0.996
21,1:no,1:no,,0.996
22,1:no,1:no,,0.996
23,1:no,1:no,,0.996
24,1:no,1:no,,0.996
25,1:no,1:no,,0.996
26,1:no,1:no,,0.996
27,1:no,1:no,,0.996
28,1:no,1:no,,0.996
29,1:no,1:no,,0.996
30,1:no,1:no,,0.996
31,1:no,1:no,,0.996
32,1:no,1:no,,0.996
33,1:no,1:no,,0.996
34,1:no,1:no,,0.996
35,1:no,1:no,,0.996
36,1:no,1:no,,0.996
37,1:no,1:no,,0.996
38,1:no,1:no,,0.996
39,1:no,1:no,,0.996
40,1:no,1:no,,0.996
41,1:no,1:no,,0.996
42,1:no,1:no,,0.996
43,1:no,1:no,,0.996
44,1:no,1:no,,0.996
45,1:no,1:no,,0.996
46,1:no,1:no,,0.996
47,1:no,1:no,,0.996
48,1:no,1:no,,0.996
49,1:no,1:no,,0.996
50,1:no,1:no,,0.996
51,1:no,1:no,,0.996
52,1:no,1:no,,0.996
53,1:no,1:no,,0.996
54,1:no,1:no,,0.996
55,1:no,1:no,,0.996
56,1:no,1:no,,0.996
57,1:no,1:no,,0.996
58,1:no,1:no,,0.996
59,1:no,1:no,,0.996
60,1:no,1:no,,0.996
61,1:no,1:no,,0.996
62,1:no,1:no,,0.996
63,1:no,1:no,,0.996
64,1:no,1:no,,0.996
65,1:no,1:no,,0.996
66,1:no,1:no,,0.996
67,1:no,1:no,,0.996
68,1:no,1:no,,0.996
69,1:no,1:no,,0.996
70,1:no,1:no,,0.996
71,1:no,1:no,,0.996
72,1:no,1:no,,0.996
73,1:no,1:no,,0.996
74,1:no,1:no,,0.996
75,1:no,1:no,,0.996
76,1:no,1:no,,0.996
77,1:no,1:no,,0.996
78,1:no,1:no,,0.996
79,1:no,1:no,,0.996
80,1:no,1:no,,0.996
81,1:no,1:no,,0.996
82,1:no,1:no,,0.996
83,1:no,1:no,,0.996
84,1:no,1:no,,0.996
85,1:no,1:no,,0.996
86,1:no,1:no,,0.996
87,1:no,1:no,,0.996
88,1:no,1:no,,0.996
89,1:no,1:no,,0.996
90,1:no,1:no,,0.996
91,1:no,1:no,,0.996
92,1:no,1:no,,0.996
93,1:no,1:no,,0.996
94,1:no,1:no,,0.996
95,1:no,1:no,,0.996
96,1:no,1:no,,0.996
97,1:no,1:no,,0.996
98,1:no,1:no,,0.996
99,1:no,1:no,,0.996
100,1:no,1:no,,0.996
101,1:no,1:no,,0.996
102,1:no,1:no,,0.996
103,1:no,1:no,,0.996
104,1:no,1:no,,0.996
105,1:no,1:no,,0.996
106,1:no,1:no,,0.996
107,1:no,1:no,,0.996
108,1:no,1:no,,0.996
109,1:no,1:no,,0.996
110,1:no,1:no,,0.996
111,1:no,1:no,,0.996
112,1:no,1:no,,0.996
113,1:no,1:no,,0.996
114,1:no,1:no,,0.996
115,1:no,1:no,,0.996
116,1:no,1:no,,0.996
117,1:no,1:no,,0.996
118,1:no,1:no,,0.996
119,1:no,1:no,,0.996
120,1:no,1:no,,0.996
121,1:no,1:no,,0.996
122,1:no,1:no,,0.996
123,1:no,1:no,,0.996
124,1:no,1:no,,0.996
125,1:no,1:no,,0.996
126,1:no,1:no,,0.996
127,1:no,1:no,,0.996
128,1:no,1:no,,0.996
129,1:no,1:no,,0.996
130,1:no,1:no,,0.996
131,1:no,1:no,,0.996
132,1:no,1:no,,0.996
133,1:no,1:no,,0.996
134,1:no,1:no,,0.996
135,1:no,1:no,,0.996
136,1:no,1:no,,0.996
137,1:no,1:no,,0.996
138,1:no,1:no,,0.996
139,1:no,1:no,,0.996
140,1:no,1:no,,0.996
141,1:no,1:no,,0.996
142,1:no,1:no,,0.996
143,1:no,1:no,,0.996
144,1:no,1:no,,0.996
145,1:no,1:no,,0.996
146,1:no,1:no,,0.996
147,1:no,1:no,,0.996
148,1:no,1:no,,0.996
149,1:no,1:no,,0.996
150,1:no,1:no,,0.996
151,1:no,1:no,,0.996
152,1:no,1:no,,0.996
153,1:no,1:no,,0.996
154,1:no,1:no,,0.996
155,1:no,1:no,,0.996
156,1:no,1:no,,0.996
157,1:no,1:no,,0.996
158,1:no,1:no,,0.996
159,1:no,1:no,,0.996
160,1:no,1:no,,0.996
161,1:no,1:no,,0.996
162,1:no,1:no,,0.996
163,1:no,1:no,,0.996
164,1:no,1:no,,0.996
165,1:no,1:no,,0.996
166,2:yes,2:yes,,1
167,2:yes,2:yes,,1
168,2:yes,2:yes,,1
169,2:yes,2:yes,,1
170,2:yes,2:yes,,1
171,2:yes,2:yes,,1
172,2:yes,2:yes,,1
173,2:yes,2:yes,,1
174,2:yes,2:yes,,1
175,2:yes,2:yes,,1
176,2:yes,2:yes,,1
177,2:yes,2:yes,,1
178,2:yes,2:yes,,1
179,2:yes,2:yes,,1
180,2:yes,2:yes,,1
181,2:yes,2:yes,,1
182,2:yes,2:yes,,1
183,2:yes,2:yes,,1
184,2:yes,2:yes,,1
185,2:yes,2:yes,,1
186,2:yes,2:yes,,1
187,2:yes,2:yes,,1
188,2:yes,2:yes,,1
189,2:yes,2:yes,,1
190,2:yes,2:yes,,1
191,2:yes,2:yes,,1
192,2:yes,2:yes,,1
193,2:yes,2:yes,,1
194,2:yes,2:yes,,1
195,2:yes,2:yes,,1
196,2:yes,2:yes,,1
197,2:yes,2:yes,,1
198,2:yes,2:yes,,1
199,2:yes,2:yes,,1
200,2:yes,2:yes,,1
201,2:yes,2:yes,,1
202,2:yes,2:yes,,1
203,2:yes,1:no,+,0.996
1,1:no,1:no,,0.999
2,1:no,1:no,,0.999
3,1:no,1:no,,0.999
4,1:no,1:no,,0.999
5,1:no,1:no,,0.999
6,1:no,1:no,,0.999
7,1:no,1:no,,0.999
8,1:no,1:no,,0.999
9,1:no,1:no,,0.999
10,1:no,1:no,,0.999
11,1:no,1:no,,0.999
12,1:no,1:no,,0.999
13,1:no,1:no,,0.999
14,1:no,1:no,,0.999
15,1:no,1:no,,0.999
16,1:no,1:no,,0.999
17,1:no,1:no,,0.999
18,1:no,1:no,,0.999
19,1:no,1:no,,0.999
20,1:no,1:no,,0.999
21,1:no,1:no,,0.999
22,1:no,1:no,,0.999
23,1:no,1:no,,0.999
24,1:no,1:no,,0.999
25,1:no,1:no,,0.999
26,1:no,1:no,,0.999
27,1:no,1:no,,0.999
28,1:no,1:no,,0.999
29,1:no,1:no,,0.999
30,1:no,1:no,,0.999
31,1:no,1:no,,0.999
32,1:no,1:no,,0.999
33,1:no,1:no,,0.999
34,1:no,1:no,,0.999
35,1:no,1:no,,0.999
36,1:no,1:no,,1
37,1:no,1:no,,0.999
38,1:no,1:no,,0.999
39,1:no,1:no,,0.999
40,1:no,1:no,,0.999
41,1:no,1:no,,0.999
42,1:no,1:no,,0.999
43,1:no,1:no,,0.999
44,1:no,1:no,,0.999
45,1:no,1:no,,0.999
46,1:no,1:no,,0.999
47,1:no,1:no,,0.999
48,1:no,1:no,,0.999
49,1:no,1:no,,0.999
50,1:no,1:no,,1
51,1:no,1:no,,0.999
52,1:no,1:no,,0.999
53,1:no,1:no,,0.999
54,1:no,1:no,,0.999
55,1:no,1:no,,0.999
56,1:no,1:no,,0.999
57,1:no,1:no,,0.999
58,1:no,1:no,,0.999
59,1:no,1:no,,0.999
60,1:no,1:no,,0.999
61,1:no,1:no,,0.999
62,1:no,1:no,,0.999
63,1:no,1:no,,0.999
64,1:no,1:no,,0.999
65,1:no,1:no,,0.999
66,1:no,1:no,,0.999
67,1:no,1:no,,0.999
68,1:no,1:no,,0.999
69,1:no,1:no,,0.999
70,1:no,1:no,,0.999
71,1:no,1:no,,0.999
72,1:no,1:no,,1
73,1:no,1:no,,0.999
74,1:no,1:no,,0.999
75,1:no,1:no,,0.999
76,1:no,1:no,,0.999
77,1:no,1:no,,0.999
78,1:no,1:no,,0.999
79,1:no,1:no,,0.999
80,1:no,1:no,,0.999
81,1:no,1:no,,0.999
82,1:no,1:no,,0.999
83,1:no,1:no,,0.999
84,1:no,1:no,,0.999
85,1:no,1:no,,0.999
86,1:no,1:no,,0.999
87,1:no,1:no,,0.999
88,1:no,1:no,,0.999
89,1:no,1:no,,0.999
90,1:no,1:no,,0.999
91,1:no,1:no,,0.999
92,1:no,1:no,,0.999
93,1:no,1:no,,0.999
94,1:no,1:no,,0.999
95,1:no,1:no,,0.999
96,1:no,1:no,,0.999
97,1:no,1:no,,0.999
98,1:no,1:no,,0.999
99,1:no,1:no,,0.999
100,1:no,1:no,,0.999
101,1:no,1:no,,0.999
102,1:no,1:no,,0.999
103,1:no,1:no,,0.999
104,1:no,1:no,,0.999
105,1:no,1:no,,0.999
106,1:no,1:no,,0.999
107,1:no,1:no,,0.999
108,1:no,1:no,,0.999
109,1:no,1:no,,0.999
110,1:no,1:no,,1
111,1:no,1:no,,0.999
112,1:no,1:no,,0.999
113,1:no,1:no,,0.999
114,1:no,1:no,,0.999
115,1:no,1:no,,0.999
116,1:no,1:no,,0.999
117,1:no,1:no,,0.999
118,1:no,1:no,,0.999
119,1:no,1:no,,0.999
120,1:no,1:no,,0.999
121,1:no,1:no,,0.999
122,1:no,1:no,,0.999
123,1:no,1:no,,0.999
124,1:no,1:no,,0.999
125,1:no,1:no,,0.999
126,1:no,1:no,,0.999
127,1:no,1:no,,0.999
128,1:no,1:no,,0.999
129,1:no,1:no,,0.999
130,1:no,1:no,,0.999
131,1:no,1:no,,0.999
132,1:no,1:no,,0.999
133,1:no,1:no,,0.999
134,1:no,1:no,,0.999
135,1:no,1:no,,0.999
136,1:no,1:no,,0.999
137,1:no,1:no,,0.999
138,1:no,1:no,,0.999
139,1:no,1:no,,0.999
140,1:no,1:no,,0.999
141,1:no,1:no,,0.999
142,1:no,1:no,,0.999
143,1:no,1:no,,0.999
144,1:no,1:no,,0.999
145,1:no,1:no,,0.999
146,1:no,1:no,,0.999
147,1:no,1:no,,1
148,1:no,1:no,,0.999
149,1:no,1:no,,0.999
150,1:no,1:no,,0.999
151,1:no,1:no,,0.999
152,1:no,1:no,,0.999
153,1:no,1:no,,0.999
154,1:no,1:no,,0.999
155,1:no,1:no,,0.999
156,1:no,1:no,,0.999
157,1:no,1:no,,0.999
158,1:no,1:no,,0.999
159,1:no,1:no,,0.999
160,1:no,1:no,,0.999
161,1:no,1:no,,0.999
162,1:no,1:no,,0.999
163,1:no,1:no,,0.999
164,1:no,1:no,,0.999
165,1:no,1:no,,0.999
166,2:yes,2:yes,,1
167,2:yes,2:yes,,1
168,2:yes,2:yes,,1
169,2:yes,2:yes,,1
170,2:yes,2:yes,,1
171,2:yes,2:yes,,1
172,2:yes,2:yes,,1
173,2:yes,2:yes,,1
174,2:yes,2:yes,,1
175,2:yes,2:yes,,1
176,2:yes,2:yes,,1
177,2:yes,2:yes,,1
178,2:yes,2:yes,,1
179,2:yes,2:yes,,1
180,2:yes,2:yes,,1
181,2:yes,2:yes,,1
182,2:yes,2:yes,,1
183,2:yes,2:yes,,1
184,2:yes,2:yes,,1
185,2:yes,2:yes,,1
186,2:yes,2:yes,,1
187,2:yes,2:yes,,1
188,2:yes,2:yes,,1
189,2:yes,2:yes,,1
190,2:yes,2:yes,,1
191,2:yes,2:yes,,1
192,2:yes,2:yes,,1
193,2:yes,2:yes,,1
194,2:yes,2:yes,,1
195,2:yes,2:yes,,1
196,2:yes,2:yes,,1
197,2:yes,2:yes,,1
198,2:yes,2:yes,,1
199,2:yes,2:yes,,1
200,2:yes,2:yes,,1
201,2:yes,1:no,+,0.999
202,2:yes,2:yes,,1
203,2:yes,2:yes,,1
1,1:no,1:no,,0.997
2,1:no,1:no,,0.997
3,1:no,1:no,,0.997
4,1:no,1:no,,0.997
5,1:no,1:no,,0.997
6,1:no,1:no,,0.997
7,1:no,1:no,,0.997
8,1:no,1:no,,0.997
9,1:no,1:no,,0.997
10,1:no,1:no,,0.997
11,1:no,1:no,,0.997
12,1:no,1:no,,0.997
13,1:no,1:no,,0.997
14,1:no,1:no,,0.997
15,1:no,1:no,,0.997
16,1:no,1:no,,0.997
17,1:no,1:no,,0.997
18,1:no,1:no,,0.997
19,1:no,1:no,,0.997
20,1:no,1:no,,0.997
21,1:no,1:no,,0.997
22,1:no,1:no,,0.997
23,1:no,1:no,,0.997
24,1:no,1:no,,0.997
25,1:no,1:no,,0.997
26,1:no,1:no,,0.997
27,1:no,1:no,,0.997
28,1:no,1:no,,0.997
29,1:no,1:no,,0.997
30,1:no,1:no,,0.997
31,1:no,1:no,,0.997
32,1:no,1:no,,0.997
33,1:no,1:no,,0.997
34,1:no,1:no,,0.997
35,1:no,1:no,,0.997
36,1:no,1:no,,0.997
37,1:no,1:no,,0.997
38,1:no,1:no,,0.997
39,1:no,1:no,,0.997
40,1:no,1:no,,0.997
41,1:no,1:no,,0.997
42,1:no,1:no,,0.997
43,1:no,1:no,,0.997
44,1:no,1:no,,0.997
45,1:no,1:no,,0.997
46,1:no,1:no,,0.997
47,1:no,1:no,,0.997
48,1:no,1:no,,0.997
49,1:no,1:no,,0.997
50,1:no,1:no,,0.997
51,1:no,1:no,,0.997
52,1:no,1:no,,0.997
53,1:no,1:no,,0.997
54,1:no,1:no,,0.997
55,1:no,1:no,,0.997
56,1:no,1:no,,0.997
57,1:no,1:no,,0.997
58,1:no,1:no,,0.997
59,1:no,1:no,,0.997
60,1:no,1:no,,0.997
61,1:no,1:no,,0.997
62,1:no,1:no,,0.997
63,1:no,1:no,,0.997
64,1:no,1:no,,0.997
65,1:no,1:no,,0.997
66,1:no,1:no,,0.997
67,1:no,1:no,,0.997
68,1:no,1:no,,0.997
69,1:no,1:no,,0.997
70,1:no,1:no,,0.997
71,1:no,1:no,,0.997
72,1:no,1:no,,0.997
73,1:no,1:no,,0.997
74,1:no,1:no,,0.997
75,1:no,1:no,,0.997
76,1:no,1:no,,0.997
77,1:no,1:no,,0.997
78,1:no,1:no,,0.997
79,1:no,1:no,,0.997
80,1:no,1:no,,0.997
81,1:no,1:no,,0.997
82,1:no,1:no,,0.997
83,1:no,1:no,,0.997
84,1:no,1:no,,0.997
85,1:no,1:no,,0.997
86,1:no,1:no,,0.997
87,1:no,1:no,,0.997
88,1:no,1:no,,0.997
89,1:no,1:no,,0.997
90,1:no,1:no,,0.997
91,1:no,1:no,,0.997
92,1:no,1:no,,0.997
93,1:no,1:no,,0.997
94,1:no,1:no,,0.997
95,1:no,1:no,,0.997
96,1:no,1:no,,0.997
97,1:no,1:no,,0.997
98,1:no,1:no,,0.997
99,1:no,1:no,,0.997
100,1:no,1:no,,0.997
101,1:no,1:no,,0.997
102,1:no,1:no,,0.997
103,1:no,1:no,,0.997
104,1:no,1:no,,0.997
105,1:no,1:no,,0.997
106,1:no,1:no,,0.997
107,1:no,1:no,,0.997
108,1:no,1:no,,0.997
109,1:no,1:no,,0.997
110,1:no,1:no,,0.997
111,1:no,1:no,,0.997
112,1:no,1:no,,1
113,1:no,1:no,,0.997
114,1:no,1:no,,0.997
115,1:no,1:no,,0.997
116,1:no,1:no,,0.997
117,1:no,1:no,,0.997
118,1:no,1:no,,0.997
119,1:no,1:no,,0.997
120,1:no,1:no,,0.997
121,1:no,1:no,,0.997
122,1:no,1:no,,0.997
123,1:no,1:no,,0.997
124,1:no,1:no,,0.997
125,1:no,1:no,,0.997
126,1:no,1:no,,0.997
127,1:no,1:no,,0.997
128,1:no,1:no,,0.997
129,1:no,1:no,,0.997
130,1:no,1:no,,0.997
131,1:no,1:no,,0.997
132,1:no,1:no,,0.997
133,1:no,1:no,,0.997
134,1:no,1:no,,0.997
135,1:no,1:no,,0.997
136,1:no,1:no,,0.997
137,1:no,1:no,,0.997
138,1:no,1:no,,0.997
139,1:no,1:no,,0.997
140,1:no,1:no,,0.997
141,1:no,1:no,,0.997
142,1:no,1:no,,0.997
143,1:no,1:no,,0.997
144,1:no,1:no,,0.997
145,1:no,1:no,,0.997
146,1:no,1:no,,0.997
147,1:no,1:no,,0.997
148,1:no,1:no,,0.997
149,1:no,1:no,,0.997
150,1:no,1:no,,0.997
151,1:no,1:no,,0.997
152,1:no,1:no,,0.997
153,1:no,1:no,,0.997
154,1:no,1:no,,0.997
155,1:no,1:no,,0.997
156,1:no,1:no,,0.997
157,1:no,1:no,,0.997
158,1:no,1:no,,0.997
159,1:no,1:no,,0.997
160,1:no,1:no,,0.997
161,1:no,1:no,,0.997
162,1:no,1:no,,0.997
163,1:no,1:no,,0.997
164,1:no,1:no,,0.997
165,1:no,1:no,,0.997
166,2:yes,2:yes,,1
167,2:yes,2:yes,,1
168,2:yes,2:yes,,1
169,2:yes,2:yes,,1
170,2:yes,1:no,+,0.997
171,2:yes,2:yes,,1
172,2:yes,2:yes,,1
173,2:yes,2:yes,,1
174,2:yes,2:yes,,1
175,2:yes,2:yes,,1
176,2:yes,2:yes,,1
177,2:yes,2:yes,,1
178,2:yes,2:yes,,1
179,2:yes,1:no,+,0.997
180,2:yes,2:yes,,1
181,2:yes,2:yes,,1
182,2:yes,2:yes,,1
183,2:yes,2:yes,,1
184,2:yes,2:yes,,1
185,2:yes,2:yes,,1
186,2:yes,2:yes,,1
187,2:yes,1:no,+,0.997
188,2:yes,2:yes,,1
189,2:yes,2:yes,,1
190,2:yes,2:yes,,1
191,2:yes,2:yes,,1
192,2:yes,2:yes,,1
193,2:yes,2:yes,,1
194,2:yes,2:yes,,1
195,2:yes,2:yes,,1
196,2:yes,2:yes,,1
197,2:yes,2:yes,,1
198,2:yes,2:yes,,1
199,2:yes,2:yes,,1
200,2:yes,2:yes,,1
201,2:yes,2:yes,,1
202,2:yes,2:yes,,1
203,2:yes,2:yes,,1
1,1:no,1:no,,0.998
2,1:no,1:no,,0.998
3,1:no,1:no,,0.998
4,1:no,1:no,,0.998
5,1:no,1:no,,0.998
6,1:no,1:no,,0.998
7,1:no,1:no,,0.998
8,1:no,1:no,,0.998
9,1:no,1:no,,0.998
10,1:no,1:no,,0.998
11,1:no,1:no,,0.998
12,1:no,1:no,,0.998
13,1:no,1:no,,0.998
14,1:no,1:no,,0.998
15,1:no,1:no,,0.998
16,1:no,1:no,,0.998
17,1:no,1:no,,0.998
18,1:no,1:no,,0.998
19,1:no,1:no,,0.998
20,1:no,1:no,,0.998
21,1:no,1:no,,0.998
22,1:no,1:no,,0.998
23,1:no,1:no,,0.998
24,1:no,1:no,,0.998
25,1:no,1:no,,0.998
26,1:no,1:no,,0.998
27,1:no,1:no,,0.998
28,1:no,1:no,,0.998
29,1:no,1:no,,0.998
30,1:no,1:no,,0.998
31,1:no,1:no,,0.998
32,1:no,1:no,,0.998
33,1:no,1:no,,0.998
34,1:no,1:no,,0.998
35,1:no,1:no,,0.998
36,1:no,1:no,,0.998
37,1:no,1:no,,0.998
38,1:no,1:no,,0.998
39,1:no,1:no,,0.998
40,1:no,1:no,,0.998
41,1:no,1:no,,0.998
42,1:no,1:no,,0.998
43,1:no,1:no,,0.998
44,1:no,1:no,,0.998
45,1:no,1:no,,0.998
46,1:no,1:no,,0.998
47,1:no,1:no,,0.998
48,1:no,1:no,,0.998
49,1:no,1:no,,0.998
50,1:no,1:no,,0.998
51,1:no,1:no,,0.998
52,1:no,1:no,,0.998
53,1:no,1:no,,0.998
54,1:no,1:no,,0.998
55,1:no,1:no,,0.998
56,1:no,1:no,,0.998
57,1:no,1:no,,0.998
58,1:no,1:no,,0.998
59,1:no,1:no,,0.998
60,1:no,1:no,,0.998
61,1:no,1:no,,0.998
62,1:no,1:no,,0.998
63,1:no,1:no,,0.998
64,1:no,1:no,,0.998
65,1:no,1:no,,0.998
66,1:no,1:no,,0.998
67,1:no,1:no,,0.998
68,1:no,1:no,,0.998
69,1:no,1:no,,0.998
70,1:no,1:no,,0.998
71,1:no,1:no,,0.998
72,1:no,1:no,,0.998
73,1:no,1:no,,0.998
74,1:no,1:no,,0.998
75,1:no,1:no,,0.998
76,1:no,1:no,,0.998
77,1:no,1:no,,0.998
78,1:no,1:no,,0.998
79,1:no,1:no,,0.998
80,1:no,1:no,,0.998
81,1:no,1:no,,0.998
82,1:no,1:no,,0.998
83,1:no,1:no,,0.998
84,1:no,1:no,,0.998
85,1:no,1:no,,1
86,1:no,1:no,,0.998
87,1:no,1:no,,0.998
88,1:no,1:no,,0.998
89,1:no,1:no,,0.998
90,1:no,1:no,,0.998
91,1:no,1:no,,1
92,1:no,1:no,,0.998
93,1:no,1:no,,0.998
94,1:no,1:no,,0.998
95,1:no,1:no,,0.998
96,1:no,1:no,,0.998
97,1:no,1:no,,0.998
98,1:no,1:no,,0.998
99,1:no,1:no,,0.998
100,1:no,1:no,,0.998
101,1:no,1:no,,0.998
102,1:no,1:no,,0.998
103,1:no,1:no,,0.998
104,1:no,1:no,,0.998
105,1:no,1:no,,0.998
106,1:no,1:no,,0.998
107,1:no,1:no,,0.998
108,1:no,1:no,,0.998
109,1:no,1:no,,0.998
110,1:no,1:no,,0.998
111,1:no,1:no,,0.998
112,1:no,1:no,,0.998
113,1:no,1:no,,0.998
114,1:no,1:no,,0.998
115,1:no,1:no,,0.998
116,1:no,1:no,,0.998
117,1:no,1:no,,1
118,1:no,1:no,,0.998
119,1:no,1:no,,0.998
120,1:no,1:no,,0.998
121,1:no,1:no,,0.998
122,1:no,1:no,,0.998
123,1:no,1:no,,0.998
124,1:no,1:no,,0.998
125,1:no,1:no,,0.998
126,1:no,1:no,,0.998
127,1:no,1:no,,0.998
128,1:no,1:no,,0.998
129,1:no,1:no,,0.998
130,1:no,1:no,,0.998
131,1:no,1:no,,0.998
132,1:no,1:no,,0.998
133,1:no,1:no,,0.998
134,1:no,1:no,,0.998
135,1:no,1:no,,0.998
136,1:no,1:no,,0.998
137,1:no,1:no,,0.998
138,1:no,1:no,,0.998
139,1:no,1:no,,0.998
140,1:no,1:no,,0.998
141,1:no,1:no,,0.998
142,1:no,1:no,,0.998
143,1:no,1:no,,0.998
144,1:no,1:no,,0.998
145,1:no,1:no,,0.998
146,1:no,1:no,,0.998
147,1:no,1:no,,0.998
148,1:no,1:no,,0.998
149,1:no,1:no,,0.998
150,1:no,1:no,,0.998
151,1:no,1:no,,0.998
152,1:no,1:no,,0.998
153,1:no,1:no,,0.998
154,1:no,1:no,,0.998
155,1:no,1:no,,0.998
156,1:no,1:no,,0.998
157,1:no,1:no,,0.998
158,1:no,1:no,,0.998
159,1:no,1:no,,0.998
160,1:no,1:no,,0.998
161,1:no,1:no,,0.998
162,1:no,1:no,,0.998
163,1:no,1:no,,0.998
164,1:no,1:no,,0.998
165,1:no,1:no,,0.998
166,2:yes,2:yes,,1
167,2:yes,2:yes,,1
168,2:yes,2:yes,,1
169,2:yes,2:yes,,1
170,2:yes,2:yes,,1
171,2:yes,2:yes,,1
172,2:yes,2:yes,,1
173,2:yes,2:yes,,1
174,2:yes,2:yes,,1
175,2:yes,2:yes,,1
176,2:yes,2:yes,,1
177,2:yes,2:yes,,1
178,2:yes,2:yes,,1
179,2:yes,2:yes,,1
180,2:yes,2:yes,,1
181,2:yes,2:yes,,1
182,2:yes,2:yes,,1
183,2:yes,2:yes,,1
184,2:yes,2:yes,,1
185,2:yes,2:yes,,1
186,2:yes,1:no,+,0.857
187,2:yes,2:yes,,1
188,2:yes,2:yes,,1
189,2:yes,2:yes,,1
190,2:yes,2:yes,,1
191,2:yes,2:yes,,1
192,2:yes,2:yes,,1
193,2:yes,2:yes,,1
194,2:yes,2:yes,,1
195,2:yes,2:yes,,1
196,2:yes,2:yes,,1
197,2:yes,2:yes,,1
198,2:yes,2:yes,,1
199,2:yes,2:yes,,1
200,2:yes,2:yes,,1
201,2:yes,2:yes,,1
202,2:yes,2:yes,,1
1,1:no,2:yes,+,1
2,1:no,1:no,,0.998
3,1:no,1:no,,0.998
4,1:no,1:no,,0.998
5,1:no,1:no,,0.998
6,1:no,1:no,,0.998
7,1:no,1:no,,0.998
8,1:no,1:no,,0.998
9,1:no,1:no,,0.998
10,1:no,1:no,,0.998
11,1:no,1:no,,0.998
12,1:no,1:no,,0.998
13,1:no,1:no,,0.998
14,1:no,1:no,,0.998
15,1:no,1:no,,0.998
16,1:no,1:no,,0.998
17,1:no,1:no,,0.998
18,1:no,1:no,,1
19,1:no,1:no,,0.998
20,1:no,1:no,,0.998
21,1:no,1:no,,0.998
22,1:no,1:no,,0.998
23,1:no,1:no,,0.998
24,1:no,1:no,,0.998
25,1:no,1:no,,0.998
26,1:no,1:no,,0.998
27,1:no,1:no,,0.998
28,1:no,1:no,,0.998
29,1:no,1:no,,0.998
30,1:no,1:no,,0.998
31,1:no,1:no,,0.998
32,1:no,1:no,,0.998
33,1:no,1:no,,0.998
34,1:no,1:no,,0.998
35,1:no,1:no,,0.998
36,1:no,1:no,,0.998
37,1:no,1:no,,0.998
38,1:no,1:no,,0.998
39,1:no,1:no,,0.998
40,1:no,1:no,,1
41,1:no,1:no,,0.998
42,1:no,1:no,,0.998
43,1:no,1:no,,0.998
44,1:no,1:no,,0.998
45,1:no,1:no,,0.998
46,1:no,1:no,,0.998
47,1:no,1:no,,0.998
48,1:no,1:no,,0.998
49,1:no,1:no,,0.998
50,1:no,1:no,,0.998
51,1:no,1:no,,0.998
52,1:no,1:no,,0.998
53,1:no,1:no,,0.998
54,1:no,1:no,,0.998
55,1:no,1:no,,0.998
56,1:no,1:no,,0.998
57,1:no,1:no,,0.998
58,1:no,1:no,,0.998
59,1:no,1:no,,0.998
60,1:no,1:no,,0.998
61,1:no,1:no,,0.998
62,1:no,1:no,,0.998
63,1:no,1:no,,0.998
64,1:no,1:no,,0.998
65,1:no,1:no,,0.998
66,1:no,1:no,,0.998
67,1:no,1:no,,0.998
68,1:no,1:no,,0.998
69,1:no,1:no,,0.998
70,1:no,1:no,,0.998
71,1:no,1:no,,0.998
72,1:no,1:no,,0.998
73,1:no,1:no,,0.998
74,1:no,1:no,,0.998
75,1:no,1:no,,0.998
76,1:no,1:no,,0.998
77,1:no,1:no,,0.998
78,1:no,1:no,,1
79,1:no,1:no,,0.998
80,1:no,1:no,,0.998
81,1:no,1:no,,0.998
82,1:no,1:no,,1
83,1:no,1:no,,0.998
84,1:no,1:no,,0.998
85,1:no,1:no,,0.998
86,1:no,1:no,,0.998
87,1:no,1:no,,0.998
88,1:no,1:no,,0.998
89,1:no,1:no,,0.998
90,1:no,1:no,,0.998
91,1:no,1:no,,1
92,1:no,1:no,,0.998
93,1:no,1:no,,0.998
94,1:no,1:no,,0.998
95,1:no,1:no,,0.998
96,1:no,1:no,,0.998
97,1:no,1:no,,0.998
98,1:no,1:no,,0.998
99,1:no,1:no,,0.998
100,1:no,1:no,,0.998
101,1:no,1:no,,1
102,1:no,1:no,,0.998
103,1:no,1:no,,0.998
104,1:no,1:no,,0.998
105,1:no,1:no,,0.998
106,1:no,1:no,,0.998
107,1:no,1:no,,0.998
108,1:no,1:no,,0.998
109,1:no,1:no,,0.998
110,1:no,1:no,,0.998
111,1:no,1:no,,0.998
112,1:no,1:no,,0.998
113,1:no,1:no,,0.998
114,1:no,1:no,,0.998
115,1:no,1:no,,0.998
116,1:no,1:no,,0.998
117,1:no,1:no,,0.998
118,1:no,1:no,,0.998
119,1:no,1:no,,0.998
120,1:no,1:no,,0.998
121,1:no,1:no,,0.998
122,1:no,1:no,,0.998
123,1:no,1:no,,0.998
124,1:no,1:no,,0.998
125,1:no,1:no,,0.998
126,1:no,1:no,,0.998
127,1:no,1:no,,0.998
128,1:no,1:no,,0.998
129,1:no,1:no,,0.998
130,1:no,1:no,,0.998
131,1:no,1:no,,0.998
132,1:no,1:no,,0.998
133,1:no,1:no,,0.998
134,1:no,1:no,,0.998
135,1:no,1:no,,0.998
136,1:no,1:no,,0.998
137,1:no,1:no,,0.998
138,1:no,1:no,,0.998
139,1:no,1:no,,0.998
140,1:no,1:no,,0.998
141,1:no,1:no,,0.998
142,1:no,1:no,,0.998
143,1:no,1:no,,0.998
144,1:no,1:no,,0.998
145,1:no,1:no,,0.998
146,1:no,1:no,,0.998
147,1:no,1:no,,0.998
148,1:no,1:no,,0.998
149,1:no,1:no,,0.998
150,1:no,1:no,,0.998
151,1:no,1:no,,0.998
152,1:no,1:no,,0.998
153,1:no,1:no,,0.998
154,1:no,1:no,,0.998
155,1:no,1:no,,0.998
156,1:no,1:no,,0.998
157,1:no,1:no,,0.998
158,1:no,1:no,,0.998
159,1:no,1:no,,0.998
160,1:no,1:no,,0.998
161,1:no,1:no,,0.998
162,1:no,1:no,,0.998
163,1:no,1:no,,0.998
164,1:no,1:no,,0.998
165,2:yes,2:yes,,1
166,2:yes,2:yes,,1
167,2:yes,2:yes,,1
168,2:yes,2:yes,,1
169,2:yes,2:yes,,1
170,2:yes,2:yes,,1
171,2:yes,2:yes,,1
172,2:yes,2:yes,,1
173,2:yes,2:yes,,1
174,2:yes,2:yes,,1
175,2:yes,2:yes,,1
176,2:yes,2:yes,,1
177,2:yes,2:yes,,1
178,2:yes,2:yes,,1
179,2:yes,2:yes,,1
180,2:yes,2:yes,,1
181,2:yes,2:yes,,1
182,2:yes,2:yes,,1
183,2:yes,2:yes,,1
184,2:yes,2:yes,,1
185,2:yes,2:yes,,1
186,2:yes,2:yes,,1
187,2:yes,2:yes,,1
188,2:yes,2:yes,,1
189,2:yes,2:yes,,1
190,2:yes,2:yes,,1
191,2:yes,2:yes,,1
192,2:yes,2:yes,,1
193,2:yes,2:yes,,1
194,2:yes,2:yes,,1
195,2:yes,2:yes,,1
196,2:yes,2:yes,,1
197,2:yes,2:yes,,1
198,2:yes,2:yes,,1
199,2:yes,2:yes,,1
200,2:yes,2:yes,,1
201,2:yes,2:yes,,1
202,2:yes,2:yes,,1
1,1:no,1:no,,0.998
2,1:no,1:no,,0.998
3,1:no,1:no,,0.998
4,1:no,1:no,,0.998
5,1:no,1:no,,0.998
6,1:no,1:no,,0.998
7,1:no,1:no,,0.998
8,1:no,1:no,,0.998
9,1:no,1:no,,0.998
10,1:no,1:no,,0.998
11,1:no,1:no,,0.998
12,1:no,1:no,,0.998
13,1:no,1:no,,0.998
14,1:no,1:no,,0.998
15,1:no,1:no,,0.998
16,1:no,1:no,,0.998
17,1:no,1:no,,0.998
18,1:no,1:no,,0.998
19,1:no,1:no,,0.998
20,1:no,1:no,,0.998
21,1:no,1:no,,0.998
22,1:no,1:no,,0.998
23,1:no,1:no,,0.998
24,1:no,1:no,,0.998
25,1:no,1:no,,0.998
26,1:no,1:no,,0.998
27,1:no,1:no,,0.998
28,1:no,1:no,,0.998
29,1:no,1:no,,0.998
30,1:no,1:no,,0.998
31,1:no,1:no,,0.998
32,1:no,1:no,,0.998
33,1:no,1:no,,0.998
34,1:no,1:no,,0.998
35,1:no,1:no,,0.998
36,1:no,1:no,,0.998
37,1:no,1:no,,0.998
38,1:no,1:no,,0.998
39,1:no,1:no,,0.998
40,1:no,1:no,,0.998
41,1:no,1:no,,0.998
42,1:no,1:no,,0.998
43,1:no,1:no,,0.998
44,1:no,1:no,,0.998
45,1:no,1:no,,0.998
46,1:no,1:no,,0.998
47,1:no,1:no,,0.998
48,1:no,1:no,,1
49,1:no,1:no,,0.998
50,1:no,1:no,,0.998
51,1:no,1:no,,1
52,1:no,1:no,,0.998
53,1:no,1:no,,0.998
54,1:no,1:no,,0.998
55,1:no,1:no,,0.998
56,1:no,1:no,,0.998
57,1:no,1:no,,0.998
58,1:no,1:no,,0.998
59,1:no,1:no,,0.998
60,1:no,1:no,,0.998
61,1:no,1:no,,0.998
62,1:no,1:no,,0.998
63,1:no,1:no,,0.998
64,1:no,1:no,,0.998
65,1:no,1:no,,0.998
66,1:no,1:no,,0.998
67,1:no,1:no,,0.998
68,1:no,1:no,,0.998
69,1:no,1:no,,1
70,1:no,1:no,,0.998
71,1:no,1:no,,0.998
72,1:no,1:no,,0.998
73,1:no,1:no,,0.998
74,1:no,1:no,,0.998
75,1:no,1:no,,0.998
76,1:no,1:no,,0.998
77,1:no,1:no,,0.998
78,1:no,1:no,,0.998
79,1:no,1:no,,0.998
80,1:no,1:no,,0.998
81,1:no,1:no,,0.998
82,1:no,1:no,,0.998
83,1:no,1:no,,0.998
84,1:no,1:no,,0.998
85,1:no,1:no,,0.998
86,1:no,1:no,,0.998
87,1:no,1:no,,0.998
88,1:no,1:no,,0.998
89,1:no,1:no,,0.998
90,1:no,1:no,,0.998
91,1:no,1:no,,0.998
92,1:no,1:no,,0.998
93,1:no,1:no,,0.998
94,1:no,1:no,,0.998
95,1:no,1:no,,0.998
96,1:no,1:no,,0.998
97,1:no,1:no,,0.998
98,1:no,1:no,,0.998
99,1:no,1:no,,0.998
100,1:no,1:no,,1
101,1:no,1:no,,0.998
102,1:no,1:no,,0.998
103,1:no,1:no,,0.998
104,1:no,1:no,,0.998
105,1:no,1:no,,0.998
106,1:no,1:no,,0.998
107,1:no,1:no,,0.998
108,1:no,1:no,,0.998
109,1:no,1:no,,0.998
110,1:no,1:no,,0.998
111,1:no,1:no,,0.998
112,1:no,1:no,,0.998
113,1:no,1:no,,0.998
114,1:no,1:no,,0.998
115,1:no,1:no,,0.998
116,1:no,1:no,,0.998
117,1:no,1:no,,0.998
118,1:no,1:no,,0.998
119,1:no,1:no,,0.998
120,1:no,1:no,,0.998
121,1:no,1:no,,0.998
122,1:no,1:no,,0.998
123,1:no,1:no,,0.998
124,1:no,1:no,,0.998
125,1:no,1:no,,0.998
126,1:no,1:no,,0.998
127,1:no,1:no,,0.998
128,1:no,1:no,,0.998
129,1:no,1:no,,0.998
130,1:no,1:no,,0.998
131,1:no,1:no,,0.998
132,1:no,1:no,,0.998
133,1:no,1:no,,0.998
134,1:no,1:no,,0.998
135,1:no,1:no,,0.998
136,1:no,1:no,,0.998
137,1:no,1:no,,0.998
138,1:no,1:no,,0.998
139,1:no,1:no,,0.998
140,1:no,1:no,,0.998
141,1:no,1:no,,0.998
142,1:no,1:no,,1
143,1:no,1:no,,0.998
144,1:no,1:no,,0.998
145,1:no,1:no,,0.998
146,1:no,1:no,,0.998
147,1:no,1:no,,0.998
148,1:no,1:no,,0.998
149,1:no,1:no,,0.998
150,1:no,1:no,,0.998
151,1:no,1:no,,1
152,1:no,1:no,,0.998
153,1:no,1:no,,0.998
154,1:no,1:no,,0.998
155,1:no,1:no,,0.998
156,1:no,1:no,,0.998
157,1:no,1:no,,0.998
158,1:no,1:no,,0.998
159,1:no,1:no,,0.998
160,1:no,1:no,,0.998
161,1:no,1:no,,0.998
162,1:no,1:no,,0.998
163,1:no,1:no,,0.998
164,1:no,1:no,,0.998
165,2:yes,2:yes,,1
166,2:yes,2:yes,,1
167,2:yes,2:yes,,1
168,2:yes,2:yes,,1
169,2:yes,2:yes,,1
170,2:yes,2:yes,,1
171,2:yes,2:yes,,1
172,2:yes,2:yes,,1
173,2:yes,2:yes,,1
174,2:yes,2:yes,,1
175,2:yes,2:yes,,1
176,2:yes,2:yes,,1
177,2:yes,2:yes,,1
178,2:yes,2:yes,,1
179,2:yes,2:yes,,1
180,2:yes,2:yes,,1
181,2:yes,2:yes,,1
182,2:yes,2:yes,,1
183,2:yes,2:yes,,1
184,2:yes,2:yes,,1
185,2:yes,2:yes,,1
186,2:yes,2:yes,,1
187,2:yes,2:yes,,1
188,2:yes,2:yes,,1
189,2:yes,2:yes,,1
190,2:yes,2:yes,,1
191,2:yes,2:yes,,1
192,2:yes,2:yes,,1
193,2:yes,2:yes,,1
194,2:yes,2:yes,,1
195,2:yes,2:yes,,1
196,2:yes,2:yes,,1
197,2:yes,2:yes,,1
198,2:yes,2:yes,,1
199,2:yes,2:yes,,1
200,2:yes,2:yes,,1
201,2:yes,2:yes,,1
202,2:yes,2:yes,,1
1,1:no,1:no,,0.998
2,1:no,1:no,,0.998
3,1:no,1:no,,0.998
4,1:no,1:no,,0.998
5,1:no,1:no,,0.998
6,1:no,1:no,,0.998
7,1:no,1:no,,0.998
8,1:no,1:no,,0.998
9,1:no,1:no,,0.998
10,1:no,1:no,,0.998
11,1:no,1:no,,0.998
12,1:no,1:no,,0.998
13,1:no,1:no,,0.998
14,1:no,1:no,,1
15,1:no,1:no,,0.998
16,1:no,1:no,,0.998
17,1:no,1:no,,0.998
18,1:no,1:no,,0.998
19,1:no,1:no,,0.998
20,1:no,1:no,,0.998
21,1:no,1:no,,0.998
22,1:no,1:no,,0.998
23,1:no,1:no,,0.998
24,1:no,1:no,,0.998
25,1:no,1:no,,0.998
26,1:no,1:no,,0.998
27,1:no,1:no,,0.998
28,1:no,1:no,,0.998
29,1:no,1:no,,0.998
30,1:no,1:no,,0.998
31,1:no,1:no,,0.998
32,1:no,1:no,,0.998
33,1:no,1:no,,0.998
34,1:no,1:no,,0.998
35,1:no,1:no,,0.998
36,1:no,1:no,,0.998
37,1:no,1:no,,0.998
38,1:no,1:no,,0.998
39,1:no,1:no,,0.998
40,1:no,1:no,,0.998
41,1:no,1:no,,0.998
42,1:no,1:no,,0.998
43,1:no,1:no,,0.998
44,1:no,1:no,,0.998
45,1:no,1:no,,0.998
46,1:no,1:no,,0.998
47,1:no,1:no,,0.998
48,1:no,1:no,,0.998
49,1:no,1:no,,0.998
50,1:no,1:no,,0.998
51,1:no,1:no,,0.998
52,1:no,1:no,,0.998
53,1:no,1:no,,0.998
54,1:no,1:no,,0.998
55,1:no,1:no,,1
56,1:no,1:no,,0.998
57,1:no,1:no,,0.998
58,1:no,1:no,,0.998
59,1:no,1:no,,0.998
60,1:no,1:no,,0.998
61,1:no,1:no,,0.998
62,1:no,1:no,,0.998
63,1:no,1:no,,0.998
64,1:no,1:no,,0.998
65,1:no,1:no,,0.998
66,1:no,1:no,,0.998
67,1:no,1:no,,0.998
68,1:no,1:no,,0.998
69,1:no,1:no,,0.998
70,1:no,1:no,,0.998
71,1:no,1:no,,0.998
72,1:no,1:no,,0.998
73,1:no,1:no,,0.998
74,1:no,1:no,,1
75,1:no,1:no,,0.998
76,1:no,1:no,,0.998
77,1:no,1:no,,0.998
78,1:no,1:no,,0.998
79,1:no,1:no,,0.998
80,1:no,1:no,,0.998
81,1:no,1:no,,0.998
82,1:no,1:no,,0.998
83,1:no,1:no,,0.998
84,1:no,1:no,,0.998
85,1:no,1:no,,0.998
86,1:no,1:no,,0.998
87,1:no,1:no,,0.998
88,1:no,1:no,,0.998
89,1:no,1:no,,0.998
90,1:no,1:no,,1
91,1:no,1:no,,0.998
92,1:no,1:no,,0.998
93,1:no,1:no,,0.998
94,1:no,1:no,,0.998
95,1:no,1:no,,1
96,1:no,1:no,,0.998
97,1:no,1:no,,0.998
98,1:no,1:no,,0.998
99,1:no,1:no,,0.998
100,1:no,1:no,,0.998
101,1:no,1:no,,0.998
102,1:no,1:no,,0.998
103,1:no,1:no,,0.998
104,1:no,1:no,,0.998
105,1:no,1:no,,0.998
106,1:no,1:no,,0.998
107,1:no,1:no,,0.998
108,1:no,1:no,,0.998
109,1:no,1:no,,0.998
110,1:no,1:no,,0.998
111,1:no,1:no,,0.998
112,1:no,1:no,,0.998
113,1:no,1:no,,0.998
114,1:no,1:no,,0.998
115,1:no,1:no,,0.998
116,1:no,1:no,,0.998
117,1:no,1:no,,0.998
118,1:no,1:no,,0.998
119,1:no,1:no,,0.998
120,1:no,1:no,,0.998
121,1:no,1:no,,0.998
122,1:no,1:no,,0.998
123,1:no,1:no,,0.998
124,1:no,1:no,,0.998
125,1:no,1:no,,0.998
126,1:no,1:no,,0.998
127,1:no,1:no,,0.998
128,1:no,1:no,,0.998
129,1:no,1:no,,0.998
130,1:no,1:no,,1
131,1:no,1:no,,0.998
132,1:no,1:no,,0.998
133,1:no,1:no,,0.998
134,1:no,1:no,,0.998
135,1:no,1:no,,0.998
136,1:no,1:no,,0.998
137,1:no,1:no,,0.998
138,1:no,1:no,,0.998
139,1:no,1:no,,0.998
140,1:no,1:no,,0.998
141,1:no,1:no,,0.998
142,1:no,1:no,,0.998
143,1:no,1:no,,1
144,1:no,1:no,,0.998
145,1:no,1:no,,0.998
146,1:no,1:no,,0.998
147,1:no,1:no,,0.998
148,1:no,1:no,,0.998
149,1:no,1:no,,0.998
150,1:no,1:no,,0.998
151,1:no,1:no,,0.998
152,1:no,1:no,,0.998
153,1:no,1:no,,0.998
154,1:no,1:no,,0.998
155,1:no,1:no,,0.998
156,1:no,1:no,,0.998
157,1:no,1:no,,0.998
158,1:no,1:no,,0.998
159,1:no,1:no,,0.998
160,1:no,1:no,,0.998
161,1:no,1:no,,0.998
162,1:no,1:no,,0.998
163,1:no,1:no,,0.998
164,1:no,1:no,,0.998
165,2:yes,2:yes,,1
166,2:yes,2:yes,,1
167,2:yes,2:yes,,1
168,2:yes,2:yes,,1
169,2:yes,2:yes,,1
170,2:yes,2:yes,,1
171,2:yes,2:yes,,1
172,2:yes,2:yes,,1
173,2:yes,2:yes,,1
174,2:yes,2:yes,,1
175,2:yes,2:yes,,1
176,2:yes,2:yes,,1
177,2:yes,2:yes,,1
178,2:yes,2:yes,,1
179,2:yes,2:yes,,1
180,2:yes,2:yes,,1
181,2:yes,2:yes,,1
182,2:yes,2:yes,,1
183,2:yes,2:yes,,1
184,2:yes,2:yes,,1
185,2:yes,2:yes,,1
186,2:yes,2:yes,,1
187,2:yes,2:yes,,1
188,2:yes,2:yes,,1
189,2:yes,2:yes,,1
190,2:yes,2:yes,,1
191,2:yes,2:yes,,1
192,2:yes,2:yes,,1
193,2:yes,2:yes,,1
194,2:yes,2:yes,,1
195,2:yes,2:yes,,1
196,2:yes,2:yes,,1
197,2:yes,2:yes,,1
198,2:yes,2:yes,,1
199,2:yes,2:yes,,1
200,2:yes,2:yes,,1
201,2:yes,2:yes,,1
202,2:yes,2:yes,,1
1,1:no,1:no,,0.998
2,1:no,1:no,,0.998
3,1:no,1:no,,0.998
4,1:no,1:no,,0.998
5,1:no,1:no,,0.998
6,1:no,1:no,,0.998
7,1:no,1:no,,0.998
8,1:no,1:no,,1
9,1:no,1:no,,0.998
10,1:no,1:no,,1
11,1:no,1:no,,0.998
12,1:no,1:no,,0.998
13,1:no,1:no,,0.998
14,1:no,1:no,,0.998
15,1:no,2:yes,+,1
16,1:no,1:no,,0.998
17,1:no,1:no,,0.998
18,1:no,1:no,,0.998
19,1:no,1:no,,0.998
20,1:no,1:no,,0.998
21,1:no,1:no,,1
22,1:no,1:no,,0.998
23,1:no,1:no,,0.998
24,1:no,1:no,,1
25,1:no,1:no,,1
26,1:no,1:no,,0.998
27,1:no,1:no,,0.998
28,1:no,1:no,,0.998
29,1:no,1:no,,0.998
30,1:no,1:no,,0.998
31,1:no,1:no,,0.998
32,1:no,1:no,,0.998
33,1:no,1:no,,0.998
34,1:no,1:no,,0.998
35,1:no,1:no,,0.998
36,1:no,1:no,,0.998
37,1:no,1:no,,0.998
38,1:no,1:no,,0.998
39,1:no,1:no,,0.998
40,1:no,1:no,,0.998
41,1:no,1:no,,0.998
42,1:no,1:no,,0.998
43,1:no,1:no,,0.998
44,1:no,1:no,,0.998
45,1:no,1:no,,0.998
46,1:no,1:no,,0.998
47,1:no,1:no,,0.998
48,1:no,1:no,,0.998
49,1:no,1:no,,0.998
50,1:no,1:no,,0.998
51,1:no,1:no,,0.998
52,1:no,1:no,,0.998
53,1:no,1:no,,0.998
54,1:no,1:no,,0.998
55,1:no,1:no,,1
56,1:no,1:no,,0.998
57,1:no,1:no,,0.998
58,1:no,1:no,,0.998
59,1:no,1:no,,0.998
60,1:no,1:no,,0.998
61,1:no,1:no,,0.998
62,1:no,1:no,,0.998
63,1:no,1:no,,0.998
64,1:no,1:no,,0.998
65,1:no,1:no,,0.998
66,1:no,1:no,,0.998
67,1:no,1:no,,0.998
68,1:no,1:no,,0.998
69,1:no,1:no,,0.998
70,1:no,1:no,,0.998
71,1:no,1:no,,0.998
72,1:no,1:no,,0.998
73,1:no,1:no,,0.998
74,1:no,1:no,,0.998
75,1:no,1:no,,0.998
76,1:no,1:no,,0.998
77,1:no,1:no,,0.998
78,1:no,1:no,,0.998
79,1:no,1:no,,1
80,1:no,1:no,,0.998
81,1:no,1:no,,0.998
82,1:no,1:no,,0.998
83,1:no,1:no,,0.998
84,1:no,1:no,,0.998
85,1:no,1:no,,0.998
86,1:no,1:no,,0.998
87,1:no,1:no,,0.998
88,1:no,1:no,,0.998
89,1:no,1:no,,0.998
90,1:no,1:no,,0.998
91,1:no,1:no,,0.998
92,1:no,1:no,,0.998
93,1:no,1:no,,0.998
94,1:no,1:no,,0.998
95,1:no,1:no,,0.998
96,1:no,1:no,,0.998
97,1:no,1:no,,1
98,1:no,1:no,,0.998
99,1:no,1:no,,0.998
100,1:no,1:no,,0.998
101,1:no,1:no,,1
102,1:no,1:no,,0.998
103,1:no,1:no,,0.998
104,1:no,1:no,,0.998
105,1:no,1:no,,0.998
106,1:no,1:no,,0.998
107,1:no,1:no,,0.998
108,1:no,1:no,,0.998
109,1:no,1:no,,0.998
110,1:no,1:no,,0.998
111,1:no,1:no,,0.998
112,1:no,1:no,,0.998
113,1:no,1:no,,0.998
114,1:no,1:no,,0.998
115,1:no,1:no,,0.998
116,1:no,1:no,,0.998
117,1:no,1:no,,0.998
118,1:no,1:no,,0.998
119,1:no,1:no,,0.998
120,1:no,1:no,,0.998
121,1:no,1:no,,0.998
122,1:no,1:no,,0.998
123,1:no,1:no,,0.998
124,1:no,1:no,,0.998
125,1:no,1:no,,0.998
126,1:no,1:no,,0.998
127,1:no,1:no,,0.998
128,1:no,1:no,,0.998
129,1:no,1:no,,0.998
130,1:no,1:no,,0.998
131,1:no,1:no,,0.998
132,1:no,1:no,,0.998
133,1:no,1:no,,1
134,1:no,1:no,,0.998
135,1:no,1:no,,0.998
136,1:no,1:no,,0.998
137,1:no,1:no,,0.998
138,1:no,1:no,,0.998
139,1:no,1:no,,0.998
140,1:no,1:no,,0.998
141,1:no,1:no,,0.998
142,1:no,1:no,,0.998
143,1:no,1:no,,0.998
144,1:no,1:no,,0.998
145,1:no,1:no,,0.998
146,1:no,1:no,,0.998
147,1:no,1:no,,0.998
148,1:no,1:no,,0.998
149,1:no,1:no,,0.998
150,1:no,1:no,,0.998
151,1:no,1:no,,0.998
152,1:no,1:no,,0.998
153,1:no,1:no,,0.998
154,1:no,1:no,,0.998
155,1:no,1:no,,0.998
156,1:no,1:no,,0.998
157,1:no,1:no,,0.998
158,1:no,1:no,,0.998
159,1:no,1:no,,0.998
160,1:no,1:no,,0.998
161,1:no,1:no,,0.998
162,1:no,1:no,,0.998
163,1:no,1:no,,1
164,1:no,1:no,,0.998
165,2:yes,2:yes,,1
166,2:yes,2:yes,,1
167,2:yes,2:yes,,1
168,2:yes,2:yes,,1
169,2:yes,2:yes,,1
170,2:yes,2:yes,,1
171,2:yes,2:yes,,1
172,2:yes,2:yes,,1
173,2:yes,2:yes,,1
174,2:yes,2:yes,,1
175,2:yes,2:yes,,1
176,2:yes,2:yes,,1
177,2:yes,2:yes,,1
178,2:yes,2:yes,,1
179,2:yes,2:yes,,1
180,2:yes,2:yes,,1
181,2:yes,2:yes,,1
182,2:yes,2:yes,,1
183,2:yes,2:yes,,1
184,2:yes,2:yes,,1
185,2:yes,2:yes,,1
186,2:yes,2:yes,,1
187,2:yes,2:yes,,1
188,2:yes,2:yes,,1
189,2:yes,2:yes,,1
190,2:yes,2:yes,,1
191,2:yes,2:yes,,1
192,2:yes,2:yes,,1
193,2:yes,2:yes,,1
194,2:yes,2:yes,,1
195,2:yes,2:yes,,1
196,2:yes,2:yes,,1
197,2:yes,2:yes,,1
198,2:yes,2:yes,,1
199,2:yes,2:yes,,1
200,2:yes,2:yes,,1
201,2:yes,2:yes,,1
202,2:yes,2:yes,,1

=== Stratified cross-validation ===
=== Summary ===

Correctly Classified Instances        2014               99.4568 %
Incorrectly Classified Instances        11                0.5432 %
Kappa statistic                          0.982 
Mean absolute error                      0.0072
Root mean squared error                  0.0718
Relative absolute error                  2.3655 %
Root relative squared error             18.4107 %
Total Number of Instances             2025     

=== Detailed Accuracy By Class ===

                 TP Rate  FP Rate  Precision  Recall   F-Measure  MCC      ROC Area  PRC Area  Class
                 0.999    0.024    0.995      0.999    0.997      0.982    0.992     0.996     no
                 0.976    0.001    0.995      0.976    0.985      0.982    0.992     0.984     yes
Weighted Avg.    0.995    0.020    0.995      0.995    0.995      0.982    0.992     0.994     

=== Confusion Matrix ===

    a    b   <-- classified as
 1644    2 |    a = no
    9  370 |    b = yes

